{
  "version": "v3.5",
  "feature_names": [
    "file_path",
    "ticket",
    "channel",
    "pkg_mention",
    "line_range",
    "decision_kw",
    "code_call",
    "proper_name",
    "quantity",
    "inline_code",
    "bare_ack",
    "topic_shift",
    "short_question",
    "log_length"
  ],
  "classes": [
    "keep",
    "summarize",
    "melt"
  ],
  "W": [
    [
      2.982415353709644,
      1.53464319145446,
      2.4884503596752805,
      0.8517274100558889,
      0.6226086361212609,
      2.411042212109741,
      1.1294091839633555,
      1.3401026276977315,
      0.19517634180924393,
      2.000824783833001,
      0,
      -0.467926830938131,
      -0.5643857527520632,
      0.2068530179302286
    ],
    [
      -0.36064906686595655,
      -1.0563815461317436,
      1.3907491482861112,
      -0.2972600723309616,
      -0.09244367742600074,
      -1.215930009819881,
      2.0532848373021744,
      -0.4833008886615558,
      3.6538432403469634,
      -0.7616624605167477,
      0,
      -0.4265838634477322,
      -0.5279175241514059,
      -0.7393299490181161
    ],
    [
      -2.6217662868436937,
      -0.4782616453227215,
      -3.8791995079613972,
      -0.5544673377249283,
      -0.5301649586952594,
      -1.195112202289861,
      -3.1826940212655295,
      -0.856801739036173,
      -3.84901958215621,
      -1.239162323316259,
      0,
      0.8945106943858642,
      1.092303276903469,
      0.5324769310878867
    ]
  ],
  "b": [
    -1.7384764115731342,
    -0.9685123024901948,
    2.7069887140633293
  ],
  "training": {
    "n": 100,
    "acc": 0.99,
    "label_counts": {
      "keep": 13,
      "melt": 80,
      "summarize": 7
    }
  }
}